{
  "metadata": {
    "createdAt": "2026-02-21T05:49:24.230Z",
    "listFile": "datasets/training_data_48OS7OIE/records.txt",
    "csvFilesUsed": [
      "datasets/training_data_48OS7OIE/tictactoe_2026-02-21T05-46-19-836Z_hn0kfe.csv"
    ],
    "trainingRows": 972,
    "hiddenLayers": [
      27,
      18
    ],
    "iterationsRequested": 12000,
    "errorThresh": 0.0025,
    "learningRate": 0.15,
    "trainResult": {
      "error": 0.007068392798705571,
      "iterations": 12000
    }
  },
  "model": {
    "sizes": [
      9,
      27,
      18,
      9
    ],
    "layers": [
      {
        "0": {},
        "1": {},
        "2": {},
        "3": {},
        "4": {},
        "5": {},
        "6": {},
        "7": {},
        "8": {}
      },
      {
        "0": {
          "bias": -0.4003450870513916,
          "weights": {
            "0": 1.9282065629959106,
            "1": 1.4146441221237183,
            "2": -6.006272315979004,
            "3": -5.503991603851318,
            "4": 11.890615463256836,
            "5": -3.7716217041015625,
            "6": -3.7425570487976074,
            "7": 5.085299015045166,
            "8": -3.3333566188812256
          }
        },
        "1": {
          "bias": -0.4671589732170105,
          "weights": {
            "0": -4.090551853179932,
            "1": 2.769152879714966,
            "2": -1.310687780380249,
            "3": -1.4235721826553345,
            "4": -0.008476804941892624,
            "5": 9.725862503051758,
            "6": -3.7888808250427246,
            "7": 0.0006258466746658087,
            "8": -3.774158239364624
          }
        },
        "2": {
          "bias": 0.37398597598075867,
          "weights": {
            "0": 1.8298616409301758,
            "1": -9.625110626220703,
            "2": 1.379206657409668,
            "3": 3.5107879638671875,
            "4": 3.446148633956909,
            "5": 2.1149213314056396,
            "6": -2.1331470012664795,
            "7": 0.4694564640522003,
            "8": 1.8455077409744263
          }
        },
        "3": {
          "bias": -1.5426733493804932,
          "weights": {
            "0": -1.483169674873352,
            "1": -3.462127208709717,
            "2": -0.6995949149131775,
            "3": -4.796197891235352,
            "4": -4.494604587554932,
            "5": -4.666472911834717,
            "6": 12.076530456542969,
            "7": -3.76505970954895,
            "8": 3.0302929878234863
          }
        },
        "4": {
          "bias": -0.7273085713386536,
          "weights": {
            "0": -7.543823719024658,
            "1": -4.199169158935547,
            "2": -0.6422639489173889,
            "3": 6.326899528503418,
            "4": -3.4424116611480713,
            "5": 8.690462112426758,
            "6": -4.78090763092041,
            "7": 5.971766948699951,
            "8": -5.4161577224731445
          }
        },
        "5": {
          "bias": -0.09617667645215988,
          "weights": {
            "0": -1.5504525899887085,
            "1": 9.707205772399902,
            "2": -2.348029375076294,
            "3": 2.3251311779022217,
            "4": 3.183002233505249,
            "5": -1.4253841638565063,
            "6": 1.6033319234848022,
            "7": -8.889486312866211,
            "8": -3.739246368408203
          }
        },
        "6": {
          "bias": -0.1639620065689087,
          "weights": {
            "0": -4.571940898895264,
            "1": -9.206501007080078,
            "2": 3.237407684326172,
            "3": -2.356173038482666,
            "4": 4.371476650238037,
            "5": -2.1100265979766846,
            "6": 9.261338233947754,
            "7": 1.5663825273513794,
            "8": -2.0726959705352783
          }
        },
        "7": {
          "bias": -1.6920459270477295,
          "weights": {
            "0": 2.0167834758758545,
            "1": -9.42447566986084,
            "2": -1.268632411956787,
            "3": -2.2355751991271973,
            "4": -10.058323860168457,
            "5": 9.363513946533203,
            "6": -2.100485324859619,
            "7": 3.7896504402160645,
            "8": 0.006734995171427727
          }
        },
        "8": {
          "bias": 0.6202152967453003,
          "weights": {
            "0": -0.3096550703048706,
            "1": 2.892904043197632,
            "2": -6.474843978881836,
            "3": -0.12278706580400467,
            "4": 2.615016222000122,
            "5": 2.6019930839538574,
            "6": -1.4547251462936401,
            "7": 1.9207946062088013,
            "8": 1.7335211038589478
          }
        },
        "9": {
          "bias": -1.0077400207519531,
          "weights": {
            "0": -6.0121235847473145,
            "1": -6.639477729797363,
            "2": 2.9284656047821045,
            "3": -4.784135341644287,
            "4": 11.414764404296875,
            "5": 0.08709531277418137,
            "6": -2.377398729324341,
            "7": -2.4320545196533203,
            "8": 3.084503412246704
          }
        },
        "10": {
          "bias": -0.46720090508461,
          "weights": {
            "0": -0.07116212695837021,
            "1": 1.202487587928772,
            "2": -1.7186753749847412,
            "3": 4.138848781585693,
            "4": 0.857501208782196,
            "5": -1.1689025163650513,
            "6": -1.3511229753494263,
            "7": -0.5703328847885132,
            "8": -3.433236598968506
          }
        },
        "11": {
          "bias": -1.209083914756775,
          "weights": {
            "0": -0.3815295696258545,
            "1": -2.350919723510742,
            "2": -5.451849937438965,
            "3": 0.11383737623691559,
            "4": 0.4742143750190735,
            "5": -1.0086216926574707,
            "6": 4.884084224700928,
            "7": 0.49337974190711975,
            "8": -3.9644508361816406
          }
        },
        "12": {
          "bias": 1.6796859502792358,
          "weights": {
            "0": 1.7968491315841675,
            "1": 0.7898083925247192,
            "2": 5.371365547180176,
            "3": 7.859376430511475,
            "4": -5.66467809677124,
            "5": -5.030646800994873,
            "6": -1.115354299545288,
            "7": 1.9503093957901,
            "8": 2.3976807594299316
          }
        },
        "13": {
          "bias": -0.7024528980255127,
          "weights": {
            "0": 0.9717937111854553,
            "1": 3.0427913665771484,
            "2": 1.843394160270691,
            "3": -4.111321926116943,
            "4": -0.5948929786682129,
            "5": -8.304455757141113,
            "6": -3.892765760421753,
            "7": 3.685167074203491,
            "8": 3.2321183681488037
          }
        },
        "14": {
          "bias": 0.33015739917755127,
          "weights": {
            "0": 2.377272129058838,
            "1": -0.4355955421924591,
            "2": 1.7696715593338013,
            "3": 2.5064470767974854,
            "4": 1.4139260053634644,
            "5": 0.45803016424179077,
            "6": 2.9789435863494873,
            "7": -11.241928100585938,
            "8": 2.5028584003448486
          }
        },
        "15": {
          "bias": 0.0000073684141170815565,
          "weights": {
            "0": 0.07455312460660934,
            "1": 0.1988908052444458,
            "2": -5.649825572967529,
            "3": -4.693671226501465,
            "4": 0.3509818911552429,
            "5": -1.5558501482009888,
            "6": 5.627514362335205,
            "7": 4.857602596282959,
            "8": 2.1160829067230225
          }
        },
        "16": {
          "bias": -0.8526444435119629,
          "weights": {
            "0": -0.5223873853683472,
            "1": -2.6254611015319824,
            "2": -0.5203070044517517,
            "3": 0.050120629370212555,
            "4": -0.15125636756420135,
            "5": -1.8905106782913208,
            "6": 0.743076741695404,
            "7": -4.090673923492432,
            "8": 4.843477249145508
          }
        },
        "17": {
          "bias": -0.06834006309509277,
          "weights": {
            "0": 6.755810737609863,
            "1": -7.397528648376465,
            "2": 4.989295482635498,
            "3": -3.975442886352539,
            "4": 1.312955379486084,
            "5": -5.561649322509766,
            "6": 5.291579246520996,
            "7": 2.313706398010254,
            "8": -3.259035587310791
          }
        },
        "18": {
          "bias": -0.604011058807373,
          "weights": {
            "0": -3.494523286819458,
            "1": 0.32447218894958496,
            "2": 0.4231620728969574,
            "3": 8.314613342285156,
            "4": -4.980702877044678,
            "5": 1.4711419343948364,
            "6": -1.3569111824035645,
            "7": -1.3300957679748535,
            "8": -4.195450305938721
          }
        },
        "19": {
          "bias": 0.2228643000125885,
          "weights": {
            "0": -7.635092258453369,
            "1": 1.798007845878601,
            "2": 1.6725620031356812,
            "3": 3.0773539543151855,
            "4": 0.10600566118955612,
            "5": -1.5300700664520264,
            "6": 3.1837289333343506,
            "7": -0.7527539730072021,
            "8": 1.9032548666000366
          }
        },
        "20": {
          "bias": -0.13755464553833008,
          "weights": {
            "0": -7.902479648590088,
            "1": 1.3211928606033325,
            "2": 4.044096946716309,
            "3": -5.84018087387085,
            "4": 2.1864304542541504,
            "5": 2.933380126953125,
            "6": -2.405565023422241,
            "7": -0.6641381978988647,
            "8": 4.500679969787598
          }
        },
        "21": {
          "bias": -0.10938423871994019,
          "weights": {
            "0": 6.654938697814941,
            "1": 5.309966564178467,
            "2": 4.289743900299072,
            "3": -3.4675533771514893,
            "4": -1.2827084064483643,
            "5": 0.5716428160667419,
            "6": -5.765359401702881,
            "7": -1.362998604774475,
            "8": -4.87198543548584
          }
        },
        "22": {
          "bias": -0.7921299934387207,
          "weights": {
            "0": 11.397919654846191,
            "1": -4.373370170593262,
            "2": 1.3240184783935547,
            "3": -1.7156713008880615,
            "4": -0.4868221879005432,
            "5": 4.704135417938232,
            "6": -2.4739937782287598,
            "7": -11.04824447631836,
            "8": -2.014549970626831
          }
        },
        "23": {
          "bias": -0.6762378811836243,
          "weights": {
            "0": 3.9550375938415527,
            "1": -3.0490458011627197,
            "2": -3.4278564453125,
            "3": 2.7507948875427246,
            "4": 1.4347074031829834,
            "5": -3.372534990310669,
            "6": -4.3619065284729,
            "7": -0.12179908901453018,
            "8": 2.8467228412628174
          }
        },
        "24": {
          "bias": -0.7792286276817322,
          "weights": {
            "0": -4.613853931427002,
            "1": 0.16418829560279846,
            "2": 5.385951042175293,
            "3": -5.828826427459717,
            "4": 0.2669356167316437,
            "5": 0.5633153319358826,
            "6": 3.32924747467041,
            "7": 0.29064589738845825,
            "8": -4.7269182205200195
          }
        },
        "25": {
          "bias": -0.1688363403081894,
          "weights": {
            "0": -4.409780025482178,
            "1": -6.587123394012451,
            "2": 1.0179505348205566,
            "3": 1.9015793800354004,
            "4": -1.8071208000183105,
            "5": 7.947478771209717,
            "6": -2.331824541091919,
            "7": -1.9144939184188843,
            "8": 5.482570171356201
          }
        },
        "26": {
          "bias": -0.8783541917800903,
          "weights": {
            "0": -2.1296019554138184,
            "1": 0.8681812286376953,
            "2": -5.182988166809082,
            "3": -0.9830461740493774,
            "4": -4.66455078125,
            "5": -1.6141706705093384,
            "6": -0.9789066910743713,
            "7": 1.62980055809021,
            "8": 7.380701065063477
          }
        }
      },
      {
        "0": {
          "bias": -0.9617428183555603,
          "weights": {
            "0": 0.48617640137672424,
            "1": 0.15131644904613495,
            "2": -0.6380602121353149,
            "3": -1.5298137664794922,
            "4": 1.5927488803863525,
            "5": 1.0583584308624268,
            "6": -0.6273431181907654,
            "7": 1.062165379524231,
            "8": -2.7575576305389404,
            "9": 1.088212490081787,
            "10": 3.799917697906494,
            "11": -1.0640499591827393,
            "12": 0.31490394473075867,
            "13": 1.47060227394104,
            "14": 3.9935462474823,
            "15": -0.5940693020820618,
            "16": -4.305861949920654,
            "17": 1.0926886796951294,
            "18": 0.06548788398504257,
            "19": -2.9377963542938232,
            "20": 3.8853516578674316,
            "21": -1.5801438093185425,
            "22": 1.2947211265563965,
            "23": -2.5774199962615967,
            "24": -0.7221773862838745,
            "25": -0.21155869960784912,
            "26": -5.814589500427246
          }
        },
        "1": {
          "bias": 0.5169553160667419,
          "weights": {
            "0": -2.797149658203125,
            "1": 3.7629215717315674,
            "2": -1.1859272718429565,
            "3": -0.10038468986749649,
            "4": -0.05651673674583435,
            "5": -2.542301654815674,
            "6": -0.4537220895290375,
            "7": 3.784708261489868,
            "8": -0.2108353078365326,
            "9": 2.950977325439453,
            "10": 2.9011149406433105,
            "11": 1.3431830406188965,
            "12": -4.587159633636475,
            "13": 0.3454216420650482,
            "14": -4.3494462966918945,
            "15": 0.13262642920017242,
            "16": -0.5392443537712097,
            "17": -1.4303722381591797,
            "18": -0.21147041022777557,
            "19": 4.984714508056641,
            "20": -2.6339504718780518,
            "21": 2.4685916900634766,
            "22": 1.2082622051239014,
            "23": -0.9692001938819885,
            "24": 1.2031168937683105,
            "25": -0.32818377017974854,
            "26": -0.4722096025943756
          }
        },
        "2": {
          "bias": 1.2683922052383423,
          "weights": {
            "0": -6.1726861000061035,
            "1": 1.0261675119400024,
            "2": -4.411592960357666,
            "3": -0.12167979031801224,
            "4": 1.8103680610656738,
            "5": -3.8377842903137207,
            "6": 1.7274951934814453,
            "7": -1.1167901754379272,
            "8": -2.494326114654541,
            "9": 4.587892532348633,
            "10": 4.559835433959961,
            "11": -6.596519947052002,
            "12": -3.073796510696411,
            "13": 2.169048547744751,
            "14": 2.645416021347046,
            "15": -0.23355931043624878,
            "16": 2.5454156398773193,
            "17": -6.5254435539245605,
            "18": 0.40689799189567566,
            "19": 3.5431435108184814,
            "20": 1.2565652132034302,
            "21": -3.14984130859375,
            "22": 3.9797070026397705,
            "23": -0.8867138624191284,
            "24": 1.7296110391616821,
            "25": -2.426924228668213,
            "26": 1.2877459526062012
          }
        },
        "3": {
          "bias": 0.8079655766487122,
          "weights": {
            "0": -1.1538957357406616,
            "1": 0.15071630477905273,
            "2": 2.4351565837860107,
            "3": -1.0640349388122559,
            "4": 1.9592604637145996,
            "5": 3.7693681716918945,
            "6": -3.161543369293213,
            "7": -3.938491106033325,
            "8": -3.3403000831604004,
            "9": 1.4304853677749634,
            "10": -1.0013285875320435,
            "11": -2.3342978954315186,
            "12": -0.16260488331317902,
            "13": 2.876800060272217,
            "14": -4.266232490539551,
            "15": -2.3723936080932617,
            "16": 1.312762975692749,
            "17": 0.17968608438968658,
            "18": -1.6810057163238525,
            "19": -1.725843071937561,
            "20": 2.363490581512451,
            "21": -0.7619274258613586,
            "22": 0.13220179080963135,
            "23": 1.3216561079025269,
            "24": 0.5374765396118164,
            "25": 0.44884806871414185,
            "26": 1.8037536144256592
          }
        },
        "4": {
          "bias": -3.293264865875244,
          "weights": {
            "0": 0.4771023392677307,
            "1": -0.2026573121547699,
            "2": 2.555757999420166,
            "3": 4.123147010803223,
            "4": -0.7868316173553467,
            "5": -0.9621903300285339,
            "6": -1.5231150388717651,
            "7": 2.074310541152954,
            "8": -1.852617621421814,
            "9": 2.0416576862335205,
            "10": 7.542024612426758,
            "11": 2.5338857173919678,
            "12": 0.28540676832199097,
            "13": 0.2529516816139221,
            "14": -1.6492072343826294,
            "15": -0.44782841205596924,
            "16": -0.4543599486351013,
            "17": 0.21597935259342194,
            "18": 2.2888214588165283,
            "19": 1.5606446266174316,
            "20": 2.273329257965088,
            "21": -2.7813477516174316,
            "22": -0.7778425812721252,
            "23": 0.2309904545545578,
            "24": 0.5297600030899048,
            "25": -2.457955837249756,
            "26": 2.0545382499694824
          }
        },
        "5": {
          "bias": -0.063726045191288,
          "weights": {
            "0": -0.42216193675994873,
            "1": 0.5787817239761353,
            "2": 5.794274806976318,
            "3": -1.0620166063308716,
            "4": 3.739152431488037,
            "5": -2.012183904647827,
            "6": 2.4389054775238037,
            "7": 1.2861696481704712,
            "8": 2.2702953815460205,
            "9": 4.533945083618164,
            "10": -3.5547049045562744,
            "11": 2.1450040340423584,
            "12": -3.038496494293213,
            "13": -0.3321455717086792,
            "14": 1.1854554414749146,
            "15": 0.4896408021450043,
            "16": -2.0866987705230713,
            "17": -2.004896640777588,
            "18": -0.9564351439476013,
            "19": -0.32470643520355225,
            "20": -2.3720791339874268,
            "21": -2.2991113662719727,
            "22": 3.098294496536255,
            "23": -1.2248263359069824,
            "24": -4.682433128356934,
            "25": -2.911431312561035,
            "26": -0.8188720941543579
          }
        },
        "6": {
          "bias": 0.5531366467475891,
          "weights": {
            "0": -1.9017677307128906,
            "1": -4.14332389831543,
            "2": 0.6432077288627625,
            "3": -1.0317856073379517,
            "4": 2.1027896404266357,
            "5": -0.8429632782936096,
            "6": -0.5606222748756409,
            "7": 0.6803230047225952,
            "8": -3.456728458404541,
            "9": -2.547342538833618,
            "10": -1.6678918600082397,
            "11": 1.2968614101409912,
            "12": 1.2461533546447754,
            "13": 1.8929929733276367,
            "14": 2.4730224609375,
            "15": 3.6025497913360596,
            "16": 3.6247458457946777,
            "17": 0.4659382700920105,
            "18": -0.8168163299560547,
            "19": -6.653588771820068,
            "20": 4.233664512634277,
            "21": -1.5096808671951294,
            "22": 3.2619876861572266,
            "23": -1.1979148387908936,
            "24": -0.5565341711044312,
            "25": -1.7264370918273926,
            "26": 0.735670804977417
          }
        },
        "7": {
          "bias": 2.8873534202575684,
          "weights": {
            "0": 0.9468790888786316,
            "1": -0.9855296611785889,
            "2": -0.9363871216773987,
            "3": 4.5564656257629395,
            "4": 0.933675229549408,
            "5": -1.4476133584976196,
            "6": -1.9104788303375244,
            "7": -2.1963932514190674,
            "8": 1.0782625675201416,
            "9": -0.56941819190979,
            "10": 0.07995463907718658,
            "11": 1.6912940740585327,
            "12": -1.0629173517227173,
            "13": -0.5944738984107971,
            "14": -0.8861573934555054,
            "15": 0.9687322974205017,
            "16": -5.637134552001953,
            "17": 0.8082816004753113,
            "18": 0.5173199772834778,
            "19": -4.960956573486328,
            "20": 1.7420234680175781,
            "21": 0.0184567179530859,
            "22": 0.6010151505470276,
            "23": 0.23016878962516785,
            "24": -0.4228562116622925,
            "25": -1.2983139753341675,
            "26": 0.8212932348251343
          }
        },
        "8": {
          "bias": -0.5720839500427246,
          "weights": {
            "0": -0.38867977261543274,
            "1": -1.3637315034866333,
            "2": -0.776847243309021,
            "3": 2.731593132019043,
            "4": -0.3228207230567932,
            "5": 1.0127241611480713,
            "6": -1.5556198358535767,
            "7": 1.3696345090866089,
            "8": 1.3304600715637207,
            "9": 0.35030844807624817,
            "10": -1.5991288423538208,
            "11": 3.4968183040618896,
            "12": 2.6512341499328613,
            "13": 1.0951199531555176,
            "14": 1.6649974584579468,
            "15": -2.9486162662506104,
            "16": -3.9339988231658936,
            "17": 0.5321416854858398,
            "18": 0.9637951254844666,
            "19": 2.2174265384674072,
            "20": -3.8116416931152344,
            "21": 1.974193811416626,
            "22": 1.2664291858673096,
            "23": -1.7143526077270508,
            "24": 1.6443036794662476,
            "25": -0.9151085615158081,
            "26": -2.2098395824432373
          }
        },
        "9": {
          "bias": -0.33603864908218384,
          "weights": {
            "0": 0.22761747241020203,
            "1": -0.12023472040891647,
            "2": 0.6544464230537415,
            "3": -0.5588825941085815,
            "4": -0.7086653113365173,
            "5": -1.8314464092254639,
            "6": 3.4019620418548584,
            "7": 0.6747038960456848,
            "8": -4.33942174911499,
            "9": 0.003931179642677307,
            "10": -0.7370902895927429,
            "11": 1.2398245334625244,
            "12": -1.2007904052734375,
            "13": -1.5957940816879272,
            "14": -4.5295023918151855,
            "15": -1.0689313411712646,
            "16": 0.8243305087089539,
            "17": 1.9800204038619995,
            "18": -0.15204641222953796,
            "19": -1.3827078342437744,
            "20": -3.6846911907196045,
            "21": 2.8448870182037354,
            "22": 0.04917554557323456,
            "23": 2.965083122253418,
            "24": 1.1043667793273926,
            "25": 0.9378119707107544,
            "26": 0.11686160415410995
          }
        },
        "10": {
          "bias": -3.547553062438965,
          "weights": {
            "0": 4.421823024749756,
            "1": -0.2124176025390625,
            "2": 2.973726749420166,
            "3": -0.4351442754268646,
            "4": -0.7170262336730957,
            "5": 0.8060708045959473,
            "6": 0.9570508003234863,
            "7": -2.860874652862549,
            "8": -0.5764553546905518,
            "9": -1.054537296295166,
            "10": -2.7669548988342285,
            "11": 3.4847936630249023,
            "12": 6.8159613609313965,
            "13": -2.29192852973938,
            "14": 1.4758014678955078,
            "15": -1.6070857048034668,
            "16": -0.03987392038106918,
            "17": 0.6101742386817932,
            "18": 0.16233813762664795,
            "19": 1.135935664176941,
            "20": 1.6428815126419067,
            "21": -2.4509801864624023,
            "22": -2.02744197845459,
            "23": -4.7379255294799805,
            "24": 2.848755121231079,
            "25": -2.3593013286590576,
            "26": -2.0488898754119873
          }
        },
        "11": {
          "bias": 3.827148199081421,
          "weights": {
            "0": 0.23326915502548218,
            "1": 0.5552021861076355,
            "2": 2.0118038654327393,
            "3": -1.6963697671890259,
            "4": -1.635095238685608,
            "5": 2.346595287322998,
            "6": -1.8190629482269287,
            "7": -0.26204878091812134,
            "8": -1.851771354675293,
            "9": -3.2889440059661865,
            "10": -7.2188520431518555,
            "11": -1.4575543403625488,
            "12": 3.1121678352355957,
            "13": -0.9446953535079956,
            "14": -2.6532113552093506,
            "15": 0.7915205955505371,
            "16": -1.7105883359909058,
            "17": 0.10110168159008026,
            "18": 3.3113291263580322,
            "19": -1.1800562143325806,
            "20": -1.9859527349472046,
            "21": 0.9162747263908386,
            "22": -3.058786630630493,
            "23": -1.2391339540481567,
            "24": 1.4223222732543945,
            "25": 2.1803557872772217,
            "26": 0.19310307502746582
          }
        },
        "12": {
          "bias": 3.2283217906951904,
          "weights": {
            "0": 5.110649108886719,
            "1": -2.6410679817199707,
            "2": 1.5102747678756714,
            "3": -0.9630424976348877,
            "4": -1.061718463897705,
            "5": -0.6756472587585449,
            "6": -3.817209243774414,
            "7": -0.8088313937187195,
            "8": 0.8757554292678833,
            "9": -0.2601953446865082,
            "10": 0.17888852953910828,
            "11": -11.036581039428711,
            "12": 2.643857002258301,
            "13": 0.9163414239883423,
            "14": -4.244171142578125,
            "15": -2.3596951961517334,
            "16": 1.5689060688018799,
            "17": 1.162578821182251,
            "18": 0.5013321042060852,
            "19": -0.39588433504104614,
            "20": 3.1382524967193604,
            "21": 1.19808828830719,
            "22": -1.8706337213516235,
            "23": -1.4616562128067017,
            "24": 0.3234938383102417,
            "25": -1.1959233283996582,
            "26": 0.514963686466217
          }
        },
        "13": {
          "bias": -6.004817008972168,
          "weights": {
            "0": 2.6067230701446533,
            "1": 3.561148166656494,
            "2": 5.259543418884277,
            "3": 2.1008758544921875,
            "4": -1.5497170686721802,
            "5": 2.9087281227111816,
            "6": -2.064655065536499,
            "7": 3.634474992752075,
            "8": 3.355196714401245,
            "9": 1.4708468914031982,
            "10": -0.042084451764822006,
            "11": -4.491523265838623,
            "12": -1.0177948474884033,
            "13": 0.24492190778255463,
            "14": 1.9007068872451782,
            "15": -0.06464400142431259,
            "16": 7.978344440460205,
            "17": -2.340228796005249,
            "18": 0.429728627204895,
            "19": -2.162961483001709,
            "20": -1.4987468719482422,
            "21": -0.3891720771789551,
            "22": 1.5922918319702148,
            "23": -2.0985121726989746,
            "24": -0.8735376000404358,
            "25": 1.806485652923584,
            "26": -1.708786964416504
          }
        },
        "14": {
          "bias": 1.8692731857299805,
          "weights": {
            "0": 4.714276313781738,
            "1": 0.6105121970176697,
            "2": -5.969388961791992,
            "3": 2.5345053672790527,
            "4": 0.7875760793685913,
            "5": 5.872681617736816,
            "6": -4.6954240798950195,
            "7": -1.5155748128890991,
            "8": 0.6153193712234497,
            "9": -0.47788006067276,
            "10": -2.8784472942352295,
            "11": -1.529245138168335,
            "12": 0.7635655999183655,
            "13": -0.9027052521705627,
            "14": 5.189939022064209,
            "15": -1.1366099119186401,
            "16": -4.463178634643555,
            "17": -1.068582534790039,
            "18": -1.3681702613830566,
            "19": -1.0556045770645142,
            "20": 3.8096113204956055,
            "21": -2.977856159210205,
            "22": -0.5819966197013855,
            "23": -4.067459583282471,
            "24": -2.9642903804779053,
            "25": -1.3269048929214478,
            "26": -1.4889620542526245
          }
        },
        "15": {
          "bias": -6.632294654846191,
          "weights": {
            "0": 2.0198137760162354,
            "1": 2.998649835586548,
            "2": -1.1169086694717407,
            "3": 3.024794340133667,
            "4": -1.6089731454849243,
            "5": -3.1843533515930176,
            "6": -0.6861356496810913,
            "7": -0.22304894030094147,
            "8": 3.589571475982666,
            "9": -0.11208576709032059,
            "10": 1.288498878479004,
            "11": 1.044880986213684,
            "12": -5.600607872009277,
            "13": -1.681639313697815,
            "14": 0.685473620891571,
            "15": -1.976217269897461,
            "16": 5.601309299468994,
            "17": -2.7431259155273438,
            "18": -0.3692184388637543,
            "19": 3.1172256469726562,
            "20": 3.296888589859009,
            "21": 2.5816166400909424,
            "22": 3.6928091049194336,
            "23": 2.2972464561462402,
            "24": -1.4435875415802002,
            "25": -2.1085023880004883,
            "26": 4.988123416900635
          }
        },
        "16": {
          "bias": 4.274897575378418,
          "weights": {
            "0": -0.5871353149414062,
            "1": -2.1774890422821045,
            "2": -0.10019493103027344,
            "3": 7.062539577484131,
            "4": 1.0731829404830933,
            "5": -1.0984097719192505,
            "6": -1.6438751220703125,
            "7": -0.8175264000892639,
            "8": -2.926891565322876,
            "9": -1.8789547681808472,
            "10": -2.350555896759033,
            "11": 1.0001568794250488,
            "12": -3.326450824737549,
            "13": 2.177561044692993,
            "14": 2.2003934383392334,
            "15": -1.3430947065353394,
            "16": 0.8238275647163391,
            "17": -0.10191983729600906,
            "18": -0.8484760522842407,
            "19": -1.6109224557876587,
            "20": -0.24697823822498322,
            "21": 0.8535499572753906,
            "22": -2.327441930770874,
            "23": 0.6302199959754944,
            "24": 3.339317798614502,
            "25": 1.777444839477539,
            "26": -0.9084773659706116
          }
        },
        "17": {
          "bias": -0.0997769683599472,
          "weights": {
            "0": -2.029540538787842,
            "1": 1.516606330871582,
            "2": 0.6119599342346191,
            "3": 4.100322246551514,
            "4": -3.143095016479492,
            "5": -0.1779024600982666,
            "6": 0.2720487117767334,
            "7": 2.30720591545105,
            "8": 0.16432590782642365,
            "9": 3.4680137634277344,
            "10": 0.39830106496810913,
            "11": 3.9580938816070557,
            "12": -3.321976661682129,
            "13": 2.486145257949829,
            "14": -3.434396982192993,
            "15": -1.7000572681427002,
            "16": 1.308477759361267,
            "17": 0.09365662932395935,
            "18": -3.4855759143829346,
            "19": 0.8764687180519104,
            "20": 1.9394004344940186,
            "21": 2.174673080444336,
            "22": 2.6306865215301514,
            "23": -1.7958539724349976,
            "24": 4.965686798095703,
            "25": -0.6238021850585938,
            "26": 1.9789485931396484
          }
        }
      },
      {
        "0": {
          "bias": 0.217164546251297,
          "weights": {
            "0": 0.3729346990585327,
            "1": -2.4515221118927,
            "2": -3.8292062282562256,
            "3": -1.0650583505630493,
            "4": -1.3305222988128662,
            "5": 0.3378947079181671,
            "6": 2.958913803100586,
            "7": 3.1206302642822266,
            "8": 3.256474018096924,
            "9": 2.3426601886749268,
            "10": -2.6212422847747803,
            "11": -0.9138139486312866,
            "12": -0.353427916765213,
            "13": 1.2571818828582764,
            "14": -1.0398558378219604,
            "15": 0.3374151885509491,
            "16": -0.6854482889175415,
            "17": -0.14647197723388672
          }
        },
        "1": {
          "bias": 1.3687620162963867,
          "weights": {
            "0": -0.5785877108573914,
            "1": 1.9751044511795044,
            "2": 1.5767406225204468,
            "3": -0.15940748155117035,
            "4": -0.9926503896713257,
            "5": -4.296547889709473,
            "6": 0.16705302894115448,
            "7": 1.5829896926879883,
            "8": 0.9170212745666504,
            "9": -4.974221229553223,
            "10": 0.13526864349842072,
            "11": 0.7067908048629761,
            "12": 0.1598731428384781,
            "13": -0.4415181279182434,
            "14": 3.002987861633301,
            "15": 1.7813658714294434,
            "16": -2.4802358150482178,
            "17": -1.0959807634353638
          }
        },
        "2": {
          "bias": -4.932444095611572,
          "weights": {
            "0": 2.7620410919189453,
            "1": 0.9228332042694092,
            "2": 2.5485849380493164,
            "3": 3.87819504737854,
            "4": -1.8085322380065918,
            "5": 0.9274410605430603,
            "6": 0.5450920462608337,
            "7": -3.1765010356903076,
            "8": 1.7526906728744507,
            "9": 1.7382749319076538,
            "10": 1.185733437538147,
            "11": 0.3739902675151825,
            "12": 3.4934000968933105,
            "13": -1.7437247037887573,
            "14": -1.998376488685608,
            "15": -3.016649007797241,
            "16": 4.126089096069336,
            "17": 0.24556076526641846
          }
        },
        "3": {
          "bias": 1.0655531883239746,
          "weights": {
            "0": 1.1936286687850952,
            "1": -1.3301756381988525,
            "2": 2.4901998043060303,
            "3": 1.8136814832687378,
            "4": 3.8415136337280273,
            "5": -1.1222351789474487,
            "6": -0.37228477001190186,
            "7": -1.6252155303955078,
            "8": 1.867005467414856,
            "9": 1.0000975131988525,
            "10": -1.2345587015151978,
            "11": 0.5464814305305481,
            "12": 0.18727052211761475,
            "13": -0.2090999037027359,
            "14": -2.3692002296447754,
            "15": 1.0064167976379395,
            "16": -0.694887101650238,
            "17": -4.991574764251709
          }
        },
        "4": {
          "bias": 6.250667095184326,
          "weights": {
            "0": -0.6632954478263855,
            "1": -4.0415940284729,
            "2": -0.7106575965881348,
            "3": 2.3397653102874756,
            "4": -1.634472370147705,
            "5": 0.7413845658302307,
            "6": -5.267586708068848,
            "7": -0.9504202008247375,
            "8": -0.9849279522895813,
            "9": 4.554050922393799,
            "10": 3.071122646331787,
            "11": -10.480389595031738,
            "12": 0.847841739654541,
            "13": 2.290703296661377,
            "14": -0.26226574182510376,
            "15": -1.2149685621261597,
            "16": -6.491316795349121,
            "17": 3.250444173812866
          }
        },
        "5": {
          "bias": -0.3775816261768341,
          "weights": {
            "0": 3.2506630420684814,
            "1": 4.299466133117676,
            "2": -1.3749027252197266,
            "3": -1.9108388423919678,
            "4": -2.796607732772827,
            "5": 0.6503647565841675,
            "6": -2.3973662853240967,
            "7": 1.0090206861495972,
            "8": -2.591399669647217,
            "9": -0.6901617050170898,
            "10": -0.5727025270462036,
            "11": 3.946734666824341,
            "12": -2.8489203453063965,
            "13": 2.127992868423462,
            "14": -0.19228772819042206,
            "15": 2.635021209716797,
            "16": -0.149641752243042,
            "17": 1.128724455833435
          }
        },
        "6": {
          "bias": 0.7819132208824158,
          "weights": {
            "0": -3.144191026687622,
            "1": 1.3422234058380127,
            "2": 1.396712303161621,
            "3": -7.60258150100708,
            "4": 1.3165518045425415,
            "5": 0.33051303029060364,
            "6": 1.6253259181976318,
            "7": 1.6611051559448242,
            "8": 0.6845837235450745,
            "9": -1.3958030939102173,
            "10": 3.2225141525268555,
            "11": -0.532134473323822,
            "12": -5.210805416107178,
            "13": -0.5925359725952148,
            "14": 2.166585683822632,
            "15": -0.7033366560935974,
            "16": 3.058958053588867,
            "17": 1.6006006002426147
          }
        },
        "7": {
          "bias": 0.8297892212867737,
          "weights": {
            "0": -1.3829315900802612,
            "1": 3.0685195922851562,
            "2": -2.999739170074463,
            "3": 1.1334813833236694,
            "4": 2.074044942855835,
            "5": 2.524031639099121,
            "6": -1.660529613494873,
            "7": 2.403580904006958,
            "8": -3.2184295654296875,
            "9": 0.9638537764549255,
            "10": -1.3412315845489502,
            "11": 2.056594133377075,
            "12": 2.3908233642578125,
            "13": -3.302891731262207,
            "14": 0.7151135206222534,
            "15": -5.555671691894531,
            "16": -0.5422223210334778,
            "17": 1.5938955545425415
          }
        },
        "8": {
          "bias": 2.386380910873413,
          "weights": {
            "0": -3.410123348236084,
            "1": -3.551509141921997,
            "2": 1.7647031545639038,
            "3": 1.9190551042556763,
            "4": -0.2969565987586975,
            "5": -0.3126305639743805,
            "6": 3.203090190887451,
            "7": -3.835951328277588,
            "8": -1.7249469757080078,
            "9": -3.2476158142089844,
            "10": -1.2626140117645264,
            "11": -0.36481598019599915,
            "12": 1.5168304443359375,
            "13": 1.2632298469543457,
            "14": -0.0763554498553276,
            "15": 2.2916066646575928,
            "16": 2.0563321113586426,
            "17": -0.3421541750431061
          }
        }
      }
    ],
    "outputLookup": false,
    "inputLookup": false,
    "activation": "sigmoid",
    "trainOpts": {
      "iterations": 12000,
      "errorThresh": 0.0025,
      "log": true,
      "logPeriod": 200,
      "learningRate": 0.15,
      "momentum": 0.1,
      "callbackPeriod": 10,
      "beta1": 0.9,
      "beta2": 0.999,
      "epsilon": 1e-8
    }
  }
}